function [y1] = myNNfun(x1)
%MYNEURALNETWORKFUNCTION neural network simulation function.
%
% Generated by Neural Network Toolbox function genFunction, 04-Jul-2017 15:23:18.
%
% [y1] = myNeuralNetworkFunction(x1) takes these arguments:
%   x = Qx138 matrix, input #1
% and returns:
%   y = Qx1 matrix, output #1
% where Q is the number of samples.

%#ok<*RPMT0>

% ===== NEURAL NETWORK CONSTANTS =====

% Input 1
x1_step1.xoffset = [0.443478260869565;0.045640625;0;0.0625;0.00390625;0;0.00390625;0.0515186050535791;0.024795075098783;0.190062111801242;0.00104058272632674;0.00104058272632674;0.00208116545265349;0.00104058272632674;0.00104058272632674;0.00104058272632674;0.00104058272632674;0.00104058272632674;0.00104058272632674;0;0.0197710718002081;0;0;0;0;0;0.00208116545265349;0;0.0374609781477627;0.0135275754422477;0.00208116545265349;0;0;0.00104058272632674;0.00416233090530697;0.00104058272632674;0.032258064516129;0.0353798126951093;0.00936524453694069;0;0;0.00104058272632674;0.0072840790842872;0.00104058272632674;0.0166493236212279;0.0312174817898023;0.0135275754422477;0.00104058272632674;0.00104058272632674;0.0021505376344086;0.00936524453694069;0.00312174817898023;0.0124869927159209;0.0156087408949011;0.0124869927159209;0.00104058272632674;0.00104058272632674;0.00520291363163371;0.0124869927159209;0.00312174817898023;0.00936524453694069;0.00416233090530697;0.0072840790842872;0;0.00208116545265349;0.0072840790842872;0.0124869927159209;0.00416233090530697;0.0072840790842872;0.00312174817898023;0.00520291363163371;0.00624349635796046;0.00104058272632674;0.0072840790842872;0.0124869927159209;0.00624349635796046;0.00312174817898023;0.00208116545265349;0.00416233090530697;0.0104058272632674;0.00832466181061394;0.00312174817898023;0.00624349635796046;0.00967741935483871;0.00416233090530697;0.00208116545265349;0.00104058272632674;0.00208116545265349;0.00312174817898023;0.00312174817898023;0.00416233090530697;0.00936524453694069;0.00104058272632674;0;0.00104058272632674;0.00312174817898023;0.00416233090530697;0.00416233090530697;0.00104058272632674;0.00624349635796046;0;0.00104058272632674;0;0.00104058272632674;0.0010752688172043;0;0.00208116545265349;0.00520291363163371;0;0;0;0;0;0.00208116545265349;0.00208116545265349;0.00520291363163371;0;0;0;0;0;0.00104058272632674;0.00208116545265349;0.00312174817898023;0;0;0;0;0;0;0.00104058272632674;0.00208116545265349;0.00104058272632674;0.00104058272632674;0.00104058272632674;0.00104058272632674;0.00104058272632674;0.00104058272632674];
x1_step1.gain = [3.59375;7.08732918429271;2;12.2037070765808;42.2442244224422;2.01509833942904;30.9178743961353;5.07478802846233;13.651764891492;2.63855780691299;4.42857142857143;7.17164179104478;2.8815592203898;4.28062360801782;7.19850187265918;76.88;27.8550724637681;11.3727810650888;5.58720930232558;7.78137651821862;8.81651376146789;6.93862815884477;4.1244635193133;6.4496644295302;6.0440251572327;4.4183908045977;6.59423604757548;7.75;9.15238095238095;7.30798479087452;6.47138047138047;3.40176991150442;5.09814323607427;5.77177177177177;4.71078431372549;9.10900473933649;12.0125;10.5027322404372;7.04029304029304;3.3719298245614;4.66504854368932;6.58219178082192;5.60349854227405;6.3016393442623;12.0880503144654;10.3891891891892;7.71887550200803;3.25211505922166;4.33860045146727;5.2667153818049;6.34323432343234;7.11851851851852;12.4805194805195;10.3333333333333;8.0418410041841;3.62641509433962;5.78915662650602;7.25283018867925;6.53741496598639;8.00833333333333;12.4;10.3333333333333;9.06603773584906;4.08067940552017;6.58219178082192;6.65051903114187;5.95046439628483;8.26192864307207;14.5606060606061;11.8641975308642;7.56692913385827;3.66793893129771;5.8419452887538;5.61988304093567;7.22556390977444;6.2;15.6260162601626;12.4;8.65765765765766;4.40825688073395;4.68780487804878;7.09225092250923;7.78137651821862;5.86512053707659;19.029702970297;14.237037037037;9.90721649484536;5.0712401055409;6.40666666666667;7.12379540400297;6.76760563380282;5.55491329479769;21.3555555555556;14.3432835820896;10.7374301675978;9.06603773584906;5.0712401055409;7.5078125;6.74385964912281;5.09814323607427;25.972972972973;16.859649122807;11.578313253012;10.8587570621469;7.84596543747449;6.24025974025974;6.53741496598639;4.82914572864322;30.03125;18.843137254902;10.0104166666667;16.2881355932203;9.28502415458937;7.09225092250922;5.61988304093567;5.95046439628483;36.9615384615385;19.8144329896907;12.0880503144654;20.6666666666667;10.3891891891892;7.688;6.72027972027972;3.51542494817705;58.2424242424242;31;9.90721649484536;36.2641509433962;18.1320754716981;10.0628272251309;6.88888888888889;6.30163934426229;73.9230769230769;37.6862745098039;16.5689655172414;68.6428571428571;33.719298245614;15.6260162601626];
x1_step1.ymin = -1;

% Layer 1
b1 = [-1.4563791825841101435;-1.2848989973858500058;1.1030664221300794381;1.0355210514222406015;0.84106048331264171569;-0.5912682964547200104;-0.56140521921563502072;-0.44281671619630830206;0.27553303978637605498;-0.084227178995112714222;0.11956129722610080168;-0.20771536850253877193;-0.36682147241471468879;-0.5025787092511159182;0.57253524824719548292;-0.87613229524432234552;0.94905008534750479043;-1.068387342420438646;1.2715395862056084741;-1.3070303136822363221];
IW1_1 = [0.14468311684179224752 0.076846316948693468851 0.041105369095511747057 0.098929421829430500002 -0.053408004653404936302 -0.062656611743854437324 -0.0062774614972413850245 0.14285140859095177279 0.27189385184338460411 0.01766827031560221084 0.10464661950307192761 0.19340089914215127798 0.001065861735722155269 -0.18043513965625174178 0.12274176858310723026 -0.14539385431658388703 0.17467201193997711206 0.088003004849174212842 0.014948938665553399008 -0.14546700895692560307 0.088080747854813956632 -0.0091616031769985537686 0.050371404669314542857 0.17127177756573075396 -0.030482631525621778357 0.056744382217241810806 0.13860670105113365169 0.066424248388460255255 0.1909386672667016116 -0.10157058497879117853 -0.20723146438475031905 0.16910602082609463293 0.16084628618488192031 -0.056141976141668221978 -0.1726649564492399036 -0.06640934818023415398 -0.15434970365265954229 -0.043682980458865754148 0.079724052529505082254 -0.079639604159771754111 -0.061271246156331303501 -0.020518897444398800228 -0.12935763136356137615 -0.062994509971595474829 -0.061446932065708399773 0.10957488377503686594 -0.1512048085228781813 -0.13806015477800029356 0.22947301193384597728 -0.17624408043738065688 -0.013019396491309835617 -0.092412954893824256208 0.11222965098894920055 -0.18360675553647667901 -0.14328393214609624895 0.21641848112948419702 0.033274644031205849459 0.080070074117715842044 0.17122054298543601392 -0.056001318544206590833 -0.12144891782583291939 -0.058108764219735126177 0.10224162193000214949 0.17004020866986166438 0.16562303593815805303 -0.01954542915760140373 0.20681795354342061288 0.03560069757253078726 0.12382111841769094518 -0.036608601905118484665 -0.089460504933363452218 -0.19607223559767181231 -0.013704174989337958301 -0.16632394579011292035 0.068193174536327089141 0.027119602063992907792 -0.13292290770744105699 -0.057529201896871162702 0.096104717180373652741 0.033829538014861271211 -0.18943718115734584084 -0.13596414204029153017 0.18077617948141452842 0.18214914085437075575 -0.18913874809086930751 -0.11938541130400215362 -0.096237645399734186857 -0.17693747310622046087 -0.069959592022855260351 -0.03899034612768697422 -0.015162862004027619425 0.1560802128032554581 0.15726443449933097396 -0.051590975237213801408 0.068068204833729398229 0.10963546932673221002 0.11641129140956554822 -0.040691270154743504339 -0.07167969613903198145 0.079888549738321379401 0.1457289539246902077 -0.029631432350532432157 0.01471838048997721124 0.17260862908015101036 0.016372869924968912192 0.14058038920459162147 0.013012359147472342749 0.18947379309758571875 0.035745093663282261065 0.13224898416225072673 0.20285519376360947041 -0.17625247609382763136 -0.08761723421157421865 0.1197560853380857937 0.19558771138322098015 0.046585965946849716701 -0.053278037196000410658 0.055007259038091400882 -0.1178372755696975166 -0.15981009447421090641 -0.16795157864231147204 0.19306015016650929228 0.0091801398602782968705 0.02375357111886090139 -0.040354986630599470887 0.021486625892822110162 -0.15929490503961035719 0.18058812364596896205 0.20841273328249193542 -0.14567976595841727883 -0.11689835070960061247 0.079245273481743483401 0.16914992450712532102 -0.13508608831954715956 -0.063881876093034348219 0.12643144468764186406 -0.022747207845199398507 0.0061615925041806074436;0.085601275282325639537 0.070253625950829068358 0.018108839700517864041 -0.062211762033141597417 0.063179563056234122609 -0.0041786722433381192146 -0.070779014308459273219 -0.13627942815422741663 -0.050883200502763195616 -0.17204272451564503466 -0.19182804704225356329 0.13115302604958778421 -0.011560076601399385879 -0.1852004350831231716 0.13850444867889555312 0.093183907788452050025 0.066186553730703506782 -0.11844146203452333987 0.0015423194938726206456 -0.091868727033688382666 0.13060316321192227962 -0.16219932214923912794 0.20151791490211831692 -0.09978759899393364885 0.10470673872695085427 -0.10659646894869065359 -0.044968966958445107107 -0.14973659345069564863 0.074812315443810922799 0.067680900904261084849 0.052482092883433625885 0.16123437435013487917 0.17871142329990571951 -0.020925626992549337113 0.0076702576417431818021 -0.19657040172314541038 0.11561869530262017247 -0.19778142386788019613 -0.169741215264523293 -0.19933459069425038535 0.033620559684638284814 0.050409631456807914296 -0.12528534406002989066 -0.038606474519284686431 -0.023798319625788419418 -0.17418848326477914812 0.00063736679800468717429 0.098673328520690509191 -0.12590777820109838592 0.072892384595569431616 -0.10897309259134929649 -0.19844415619834804287 0.052306256190162513098 0.14982580559583441593 -0.021923533846195209646 0.13532769554867704609 0.21739256661704295381 0.053282505261650472961 -0.06215400477806446583 -0.11332309734725122541 0.11142259764531754762 -0.15856470802823569022 0.02754891005487868777 0.15604938606089055475 0.1324335878124725252 0.090628607236382066614 0.10010532275589718865 -0.084819044179802502437 0.031455461068144500991 0.12881016581330420601 0.036432656921707551323 0.13598783626559976523 0.1617775724769958956 -0.027274994624609832927 0.18231144887349026718 -0.11717140715497205428 -0.050592089398767588204 0.099871273940039917427 -0.090909598206086975059 -0.14407949025073085725 0.04786453205822499557 -0.17119378380890304392 0.13128482612172559518 -0.18196230238499894183 -0.17130343612819831645 0.14211369271676954629 0.0090930977127894781209 -0.069902442105715764664 0.1780324418385338392 0.10854863837717160235 0.12064334274150106951 -0.13780214034518498134 0.030137117119932520237 -0.016451871657652047259 0.15658805789132276831 -0.11043713360574210214 0.21352919892602018059 0.14974102404276143363 -0.15785435612068121625 0.20302233522155949119 0.066952889794067660389 -0.021418164955228139595 0.15661672483144553625 0.10199089356619091273 -0.097721104064233982323 0.047874703998217423007 0.022804012056433235062 -0.20745401561689547076 0.087236558475064923668 -0.079529322478040842537 0.18076000763125921189 -0.077896321013913111253 0.034223251318117056674 0.11099220386656059867 0.098228127954672062039 -0.16551545263963629573 -0.091556040917501524401 0.051182999042629288844 0.15493311775843102152 0.075512519380656506485 0.11371326327094954944 0.039132106224435858621 -0.19837906082689862886 -0.082346822646412187741 0.14794981035180201911 0.15892663526230627058 0.058309473489785615397 -0.1849679086705325326 -0.075110629800616182661 0.1678135628762861542 -0.22036911922198981761 0.20527210531592748888 -0.053165971498835840059 0.05839239347067716468 -0.19677660170726105071 -0.17876373449597232623 -0.12595760597394670133 0.091625718560572472215;-0.72557576214351060528 0.033767398138566329102 0.13865570754548731114 -0.96828026242840259386 -0.46830355499725356827 -0.035930336531784838605 -0.47058571252283021291 0.13929476047964858831 -0.86982466526600743517 -0.46193262320411493382 0.29704998937418303218 -0.10674999081698183234 0.25914829853266607707 0.085789365027322497803 -0.088300165115010903483 -0.15917892039637959734 -0.21684782395195467686 0.03591231667669098071 0.1778936259270236242 -0.018774278654005924216 -0.18660738736476431554 -0.086596792549563539332 -0.0094921642882851969131 -0.046009174849455464207 0.020193020163543351497 -0.14461383745561340319 0.10171473465026809047 -0.09594803813247074209 -0.096096371370221866925 -0.22063889849938955745 0.038420064928767330703 -0.068820105099565528906 0.262642285411223253 -0.010248797494909657121 -0.096465962892324882971 -0.022386383906891772766 -0.00516402541547706425 0.086125211083015587588 -0.126349873010348418 0.13714517712151630402 0.24978217381383233109 -0.061805521553330022844 -0.030563748584667059516 -0.10003004845917123911 -0.16886198193365434261 0.079332235832006950393 -0.072672113448208605635 -0.0080919114460502959002 0.12332115429855189381 0.048519406697983893939 0.19141020587127280383 -0.1256436175312839465 0.028126336530323321761 0.14880387984151341452 -0.28656038855302651269 -0.069553732103260490494 0.11431657765306404984 0.068071201233625311389 -0.07969671922209846382 -0.11428939824636370759 0.14951971202453429033 -0.083334073618262491379 -0.32812927706270567096 0.095064361199612285036 0.21563157542532115918 0.14721267536990520486 -0.095124004864234501522 -0.084723917068058360313 0.0052150566895154282926 0.15326375686281754063 -0.19196853317095477487 0.25428925380866024275 0.012260861212875678525 -0.091918971804427609951 0.12416441801792105215 0.18107772570885652397 -4.1390688746949320237e-05 0.050656610054813096256 -0.08762774238807280458 -0.083568038821978996022 0.13372174998410921165 -0.072358539637409638456 -0.19750449056459334907 0.074275197858424429898 0.26021143456223272405 -0.09488093149437190621 0.058743248933734081019 0.073757625946830440711 -0.013332205893260175647 0.098794758321968143 -0.17619412014257071486 0.15154796801100378634 0.0014414362546049065347 -0.11352829256512181333 -0.2202615002913645148 0.062485711234519264456 -0.15555744727318673859 -0.068930244373391055812 -0.098399206974387670721 -0.060014373773452422967 0.26002283403563419828 0.20291827110881402452 -0.087459941515423703096 0.042046273410617208965 0.20460540240429533898 0.0675933532310174362 0.17961217310692204063 0.086524826228745216339 -0.087301227400148742608 -0.034881252160974395016 0.047164244868974442015 0.08171333371282425706 0.16553129937921587378 0.033386199064312976903 0.07842307043351291751 -0.087650205845527795478 -0.11278530910696001055 -0.086322552499013424643 0.096638815352255658109 -0.031705714661908503127 0.079737453689963641579 -0.13490505771598373941 0.16452472997278691502 0.09458783313107538282 -0.063061197775747437899 0.054786910988970649594 -0.16864924136973707958 -0.24317591952193401417 0.046208774589286218115 0.019715141438582568095 0.032332871699853341085 0.18153327840168581586 -0.15750801072121628499 0.10585630344031617123 -0.20930584582565409102 -0.0342661179329938545 -0.046100995478180036014 0.14137379488954357476;-0.2163130294085873484 0.15248135528847930886 -0.17711504656444890249 -0.27134733036190827882 -0.095506007602820616742 -0.023280080454012377911 -0.30797827684765971545 -0.11734332008862777275 -0.14622174972912441171 -0.049284677205539730027 0.091281813069100728453 -0.094319135702366954654 0.097053813832482280222 -0.15922350266555362897 -0.048449983796126236402 -0.12366419517070581513 -0.12650229372076582379 0.14343174324952678855 0.10547514174728322978 -0.060654785978923021761 0.1119014849371921666 0.083007941322124995098 0.10002355940789417477 -0.22557953311937223306 0.068093129180808578682 0.074983684304584102831 -0.056764906491118427567 -0.022470326018502587151 0.078824557081542040438 0.023154680534302474193 -0.16851434680552443424 -0.17996286779721457072 0.12713315223888510541 -0.12533430355138697188 -0.18551780599506154101 -0.21465559062832414994 -0.074649534042091625352 -0.13238393598703909748 0.075681235517059852747 -0.15803635902320942175 -0.048038488341155441419 -0.045580568556285255832 -0.11344174203309868865 0.054267173917427261043 -0.15375459211103317814 -0.089112127697889412237 -0.011859300037794347216 0.06267861431444900211 0.030784116808522721254 -0.16543516186520090816 0.18443092250864573378 0.0069913472679129645693 -0.039896808516943757517 0.056741920484406592473 0.08303639408997114113 0.13267599741301247529 -0.063528744971651965323 0.084414069714494555097 0.15507307872023257111 -0.23926959483377616134 0.11873490402648637088 -0.12627705192508648091 -0.13199350418500346849 0.090040828469015288249 -0.1060128309601153368 0.098853407109547680731 0.09338848808624419795 -0.10449297047281438933 -0.049038259292181148041 -0.065088882869236128204 -0.003619403977488696092 0.1591165589648856904 -0.020705093771609839326 -0.11963282580501816144 -0.18371578519894793402 -0.19070727564963901868 -0.096808159296964013674 -0.015917371729729682533 -0.034423256796817715275 0.19267949265806019743 -0.17359245259426184238 0.13373326700749743612 -0.085097819415462475079 -0.15615268808600163419 -0.031381288143752433806 0.19414950398410002474 0.17283115560144843292 -0.016444940888292954723 -0.091366857262088443936 -0.045298753395347043926 -0.097073905429272785983 -0.013688803210154601442 -0.13073451441715194798 0.12254648126999712066 0.1368604973894559651 0.057949447439691458006 -0.037313904963309191265 0.1289389578550745874 -0.11575933735838482563 0.14331628603495250029 -0.13216192743566299028 0.0014785525861429193051 -0.10113536436060227564 0.048424142200249577217 -0.011676429596613411774 -0.25055059895860481989 0.045567025000389782541 0.0005890906377724507495 -0.0011666586108283255249 0.15229496839636730288 -0.13607317488922845983 -0.10670651373686124153 -0.24192249298205054098 -0.081856416305734785999 0.16342504257999831974 0.10752602956578326265 0.04461286700740932365 0.00087570620559610109178 -0.20113502990629256173 -0.087270976843085573682 -0.1661815110974445564 -0.222874446165780421 -0.17728392087154229428 -0.08380034892632445831 -0.17199772034060345494 0.024675912726772056965 -0.026787420752207326963 -0.025133299389331745233 -0.0023481931357222990062 -0.10023200034122564661 -0.13772135842027211083 0.043717263937485512093 0.099438021608768287218 -0.17756016414290343164 0.0988434617879125621 -0.093518061842268379591 -0.12234588726610823306 -0.00035409677985730539373;0.38384699068613969963 0.094461469678587789423 0.12029591445206209988 0.46440317946903614255 0.22907395622702900195 0.049761017160140974536 0.39168036295674535374 -0.11731378200735687045 0.70473172628625890823 0.37097933353778417276 -0.10583642857647264368 -0.065476497533432043152 0.0028863904783380514227 0.10501983161657707511 -0.059888623938579056694 0.1007456873996980945 0.052220326050805149221 0.15382393283710124599 -0.032436449995825823722 -0.11177984951180444662 0.1488453298239046374 -0.12296010450561091487 -0.19500430493646930818 0.16557334414280450163 0.24847072473927711567 -0.11672435797828062398 0.13580013314724176388 0.10986501076270488442 0.22840185702660717459 0.10026993710267131932 -0.033671098561980021546 0.020511611875606326066 0.14058362033182747464 0.0032883814159827165317 -0.094574774453846127686 0.21395119822092817374 -0.063434451700312532996 0.076151635878375659172 -0.1076595827616179113 -0.036194581228968063236 0.074505306585151490073 0.06094370289556382686 -0.15176175762294927263 -0.08473798515755101568 0.1082855063024079495 -0.14445324984581850436 -0.044291796554665453789 0.18635077742210276464 -0.068465942346979682953 -0.059733826338735890316 -0.26478724189661745347 0.18984433048782586861 -0.012433452025421919129 -0.18821877520476998358 -0.06281120453857727548 -0.067934771642911201406 -0.019932508079967631298 -0.23774432899782521611 -0.15122513867095629947 -0.0078887026827935326917 -0.00080774164179657460209 0.20618550669461471747 0.11776023617860638393 -0.11473158802457587846 0.0067904317242170114319 -0.20584131183174897428 -0.11247618162589857749 -0.11065724913993101042 -0.10945542467375220241 0.060615078983757370024 0.01910250845854137916 0.12095640677807804886 0.053455253398034807688 -0.044258822637391774524 0.024863091171665588353 -0.1111934291644536138 -0.10054601007155533621 -0.023673056936514256382 -0.20661867048343263153 -0.20815432580061479784 -0.049714826140227340312 0.14191124704064783657 0.17285580801118441419 0.097861587989475071203 -0.093616922523230949871 0.12851822873521903667 0.1214103459489920267 0.13029870657177397564 -0.12011996764127587378 0.06048144979924186676 -0.099918502426045163745 -0.077230322151806057862 -0.080003145926435176305 -0.0027417855730078486906 0.010275126156965573229 0.13265198722311913326 -0.16886068792018202323 0.19813295294302357696 -0.096391432115886035992 -0.20649786302546849215 0.12684683917115474605 0.13237332542169952254 -0.0081230220044101429655 0.091229830389094795917 -0.2395216727646932442 0.2189036452993052273 0.15607137477731808373 0.020166838283576796892 0.10139581687187013137 0.049482764377346014073 0.16708390900211317343 -0.072065807350259705744 -0.17496345319962267051 -0.037284904820443040552 -0.17536806470383242695 0.21738682370502093733 -0.18312267633295922775 0.20751399993814026446 0.21183532775222879696 0.011504571803539274943 0.06530846131678799682 -0.043817718517219085561 0.050346477091753175093 0.024542610196753373436 0.040233514168908537934 -0.10231037679076442071 0.13077673029527525639 0.1365413655600766496 0.15068067506796092858 -0.0075587335778830198538 -0.049914840198158762219 0.15744710441696321834 0.31194780616948891705 -0.0071186421676089567737 0.082848606147609360484 0.06878858942940022092 -0.16229195368782051156 0.045878421779940704861;0.55200404331103136712 -0.15743130567581120616 0.12651182814823125344 0.53362629583890497376 0.28831808201288378068 -0.17834226535371541789 0.29083676751988746245 -0.093219164173369284399 0.51417942558368523454 0.31320844722254437276 -0.13806641937410285559 0.013925091886448725739 0.011688009417683307284 -0.010305538453507918223 -0.17757088611209037587 0.20120780465769125267 0.20512493850557853015 -0.034193557234943550149 -0.39036761011604442784 -0.079041363544259959917 -0.20117109863056753527 0.0036655746987033772759 -0.30329492807269253785 -0.026713964661323728184 0.18717633383991177931 -0.084635099899607726948 -0.027722022178289736083 0.099111383225492691307 0.2124240424262551219 0.060652193447592227249 -0.27079705475318155417 -0.018614063996391844169 -0.029293534602936995015 -0.18451785440074847111 0.082162018678255982485 -0.12670343699421010575 0.20813725180594505604 0.098620459767486318148 -0.031792577881141093066 -0.013881759775127294407 0.057975245364542370152 -0.019334892540102812525 -0.21297274530144794102 0.15369551559562943943 0.19897098871764648531 -0.14915219386822156644 -0.035355105147910126373 0.0083673863160833947955 -0.17707937495038753029 -0.21517584101680647946 -0.085209741163995572633 -0.069547831099469117899 -0.11382275410309876384 -0.0090622195009549908612 -0.069012562389195120094 -0.015298119590334681092 -0.11839436620377495613 -0.12259785397607256274 0.16337156403435293406 -0.1185349190964825189 -0.15297242764303131679 0.17695923746011341104 0.13220164282330831851 0.10431070571093524479 0.015252472057016536883 0.031244819970022444378 -0.19829643911050073846 0.20211350358737026345 0.15720462047385502791 0.19243531930938478913 -0.16064835654305870127 -0.11844845876138551666 -0.090211097076133645034 -0.19172565876476194147 -0.060709372389907916012 0.098699295111520576884 -0.010642308339266834741 -0.074229601319377669366 0.11441343392161505699 -0.10276444895699202164 -0.045409577906447486095 0.044898665608577088826 -0.11945613641175607811 -0.20776665880557398935 0.074015510214895857688 -0.030862377261331393891 0.1538327644519830173 -0.082195710705361607618 0.10948076971806623703 -0.068058364874154106405 -0.12645466554165488149 0.049977105705056472373 0.14016250335979910102 0.048678801464413973266 -0.20536128164598693724 0.079708989532126420241 0.035245148156160893693 -0.073954389421997945853 0.18168057341635568402 -0.024495383680220399886 0.048875411830561210635 -0.089475680533377552339 -0.12565144177458736907 -0.2025114050004624966 -0.012331583225704966997 0.094460430622005639445 -0.18361348537030136585 -0.0013540965964086173166 0.20120379670245422399 -0.1298856057137633413 -0.17147565521379606879 -0.15494594391276736434 -0.25274347633819455039 0.024125003025222965108 -0.027654423466982085839 -0.057521615590977272225 -0.17364687842125681172 -0.029701900313275225035 -0.064025762500021024537 0.20653705581760251064 -0.03622388730162716397 0.0052383050066217486801 -0.0061376759736088302641 0.076576714383203597913 0.12873594332977941757 -0.16821865204512531644 0.031145601544026142032 0.10414541630709624187 0.1117398741095769199 -0.091369717622074964058 -0.048104052897886613593 -0.27874185896476677549 0.024279792318730175626 -0.10418396561669916733 0.024383865480035325085 -0.089160781444755837777 -0.17094072316698560865 0.091300747021782924229;0.86619796746389021713 -0.13435116707627337007 -0.1090968666667138931 0.86827031203599391862 0.46092752578843571021 0.039902388719734942224 0.23541420754818723204 -0.0486047372234237815 0.83302343382624499668 0.71075336794101984239 -0.18793135329787152843 -0.15511829808591706681 0.0035188103698739741504 0.03263796300880305451 1.7953477781479983827e-05 0.16518706113171757743 0.062283883693016288408 0.21891626700462279986 -0.22711437031339945514 -0.094119837917940957217 0.16319022855383305548 -0.062569606226330357068 -0.038727247737789328996 0.023525209473259076076 -0.027633241895190563397 0.049773736820825649485 0.05991625446471941091 0.17733858357428769481 0.012674305004951057219 0.22770747739278790478 -0.22840706809341054795 -0.013251259631802236871 -0.20304112903928839273 -0.076242491485788821404 0.18072702619920175127 -0.05955367576259755491 0.19681078176306607275 -0.11480426048558507734 0.070734981808308894369 -0.036577517523590979964 -0.13904594255953311999 -0.35535287914290153433 0.12452417367312705598 -0.070020913480760740844 0.19580666949990535586 0.12608770931258658776 -0.10121192318337753069 0.10528628871583074755 -0.20557654644766057417 -0.13297979181324551257 -0.27731061211752622286 0.0014257038234145511229 0.050917570772365368381 0.12303539618291414737 0.27885844317759034272 0.34601041765714957155 0.078466107375579602357 0.060456576733467867757 -0.075239224757541231514 0.31013654082306690851 0.1009008810887334906 0.18320504880924248781 0.17108981680944521098 0.10766495219990913912 -0.14842383785261809015 0.15430181527502784267 -0.12998633098572814903 -0.0060945878618190070519 -0.035554053874282433301 0.078425414139961166504 -0.10942940497884708073 -0.19845682443230186487 -0.0093324669522742605132 0.1077678757826619621 0.057592881776773248437 0.0870990385595053207 -0.31775892467617322668 0.085577308630778239906 0.090174173812075791856 0.078678634894787061183 -0.13248498862692245637 0.15653621400038755795 -0.030120974408542066508 -0.093256255079393363117 -0.16226467179201684021 0.10314821932106044144 0.041385170003608043321 -0.064527852701777535516 0.017854417770226446022 0.0025510917630495975883 0.038061276904838799162 -0.16721228200810503428 -0.13573127681322333382 0.1126548924312448241 0.13126094869537763277 -0.041099165763801334683 0.13380784912020635136 0.13503885907115492637 -0.18819183568714367705 0.13640238356818523702 -0.074058716168814375802 0.069653157658004380415 0.027533867103339416949 -0.15513398206762465947 -0.02159551851278454504 -0.10054097776640444351 -0.069457044891141309084 0.13626902447835159693 0.0095072155298236010745 -0.19938974423249583579 -0.092644813893395558391 0.27291638821099684087 0.09351704488125536785 -0.13331555498128466741 0.14909741767640025123 0.032152751513369583203 -0.22365425780015241175 0.10989909552466664566 -0.017870912023790017781 0.12104400235945747544 0.15210354946246154584 0.061509036161772182028 -0.18381075229642512836 0.19516271310417016016 0.033554767739778314228 -0.27284501425195212265 0.083961670419842149293 0.27128993152217983909 -0.086305864291261691346 0.2444443912800367269 -0.093664537075965115243 -0.070301111614965161589 0.42213167972424942009 0.28930172622994526632 0.29822681833241815319 -0.17490300245751427832 -0.09742298804468767226 -0.029547270696304660242;-0.15650781302179428423 -0.41036266085658684721 0.018554358107753080726 -0.70164845463952318916 -0.47038900034649977488 -0.59711019839364709583 -0.59131502457541462725 -0.37801697463799804888 -0.54914967201700803923 -0.20253719024749500255 0.17671550021275861386 0.037722320923222737998 0.061573731055370742316 -0.10226692479061715024 0.16458663284112443059 0.14975280581791156065 0.023942018106793309246 -0.26579229914837926296 0.11462338642302585812 0.21919361792033625891 -0.099233453053616596518 0.1728670633064639528 0.080863416403331347948 0.14656060738382251096 -0.28855811791477370409 -0.037120012865784264566 -0.016319934400679324271 -0.11497019978226340198 0.11896946199108093811 0.20139984865129209601 -0.11166536479898610257 -0.065561711751861220798 -0.18283701901358342945 -0.11824244407896263021 0.041090366951248555316 -0.15611423959505593695 -0.19907357840943271099 -0.20150623422166313858 0.079517455972302017453 0.0076040201206252298199 0.054869937513105204729 -0.11440026228137875619 0.20232992410983727249 0.13105399324292585361 -0.13343691752452602195 -0.12966419590866823386 -0.16584123865703229161 -0.087800854473510006604 -0.01795941881731022427 0.13295698048763174293 0.28133150487396446637 0.24123395044393550202 0.26650213006054551679 0.082037879174905001256 -0.0053627925499694587691 0.059066561177747334277 0.026057630403714820283 -0.047686510201425301447 0.095731256124337679725 -0.23948218652819561192 0.18835211744405153111 -0.20151253226572943267 0.10659299621638333722 0.27624312321041794016 0.058869623896496796334 -0.051802114913692312581 -0.16350174465145475566 -0.12429697129402629552 0.24163704935076771307 0.11402597367222425118 -0.041971387931563026996 0.021637562660952715243 0.13503137683470531338 0.079442631180306505501 -0.099047168107898736489 0.014456202621792443516 0.14457607187045373731 0.16333302466717564139 0.14512202136297241983 0.12307773277872496864 0.12636255685830488638 -0.067689514979293569086 -0.11571324415831291121 0.048648227496000097381 0.1443365477285767362 0.088659506729734841035 0.061528810037497286278 0.16537601919780159365 0.28303886382860155013 -0.1315477785490551943 -0.024003799902985640397 -0.029735854633904209438 0.1110747161735098909 -0.01697796868574143539 -0.14365495917137222071 0.024668056538334644928 0.23670519208379425802 -0.024679505725382196168 0.0080017978100547573761 -0.036920239755853262453 0.072104089935315751614 0.12464203881877719549 0.30185465973850744703 0.36255015160648146333 -0.047161150537923281212 0.086955327443505703311 -0.051512970217899183012 -0.072173877021179000391 -0.16615697549290370238 -0.0073561923373986334504 -0.1643416015903886862 -0.085520523430007405752 0.11676590838356991353 -0.072755834647234396417 -0.069254179671309562538 0.14973540456444864311 0.011482264032710576274 -0.034408534539401992858 0.04387076136753233907 -0.023808563456454951562 0.10836854768255291259 0.13068891318603986784 0.17810426122165307072 0.23496640095871731968 0.12409083932377355797 -0.12356731136984908104 -0.024280416679802956093 -0.081327234361903491533 -0.048343126643128668529 0.02634859349441185522 -0.20808708592562133455 0.28792144446087358789 0.049627183481546953414 -0.009272092963464768911 -0.26275143026726910378 0.16988560961170171004 -0.12267546364056410024 0.17535444326403878956;0.2262500785530776326 0.34686588769692044965 -0.088423598959858740187 0.68301149334528321599 0.49588831790876469752 0.22856693947210948714 0.20871974029400977568 0.26152784552632346582 0.45192764128342072238 0.31540853954388042846 0.021187017518007611461 -0.13078143293185826024 -0.17235344639345001605 0.005807371038635443343 -0.17128627032081275572 -0.057221030687218801813 0.16622515369301979482 0.2306315086516693702 -0.15656637757298791369 -0.054537416359170864943 0.21644319418242372044 -0.082853267927707877072 -0.10771003903548988234 -0.048263462701889685291 0.18490076252340295615 0.08911061520757150578 0.026820052213211258152 0.018082509464389169562 0.090357189236927995535 0.12038850358323070766 -0.17364801462485029981 0.11947132324007525561 -0.050093119734957745892 0.1485539277774619582 0.1376654309765703299 0.029031747220323301378 0.16583094130009973233 0.048223318166936320062 0.042451068348966655708 0.026951779462411867838 -0.15589993306776719906 -0.22028093057372805097 -0.061115312995770540438 -0.19408574020541263794 -0.073895828866653218148 -0.12919193050221916552 -0.17753480182585446023 0.12009006483979432767 -0.15062642081557353624 -0.098828307712246987737 0.086635961986162204895 0.17438759577127996292 -0.08169531559513265595 -0.08991002372233430906 0.047688900485025172149 0.2043149502258515271 -0.049742873432452608395 0.035704234883878006868 0.030267024906512247223 0.25317054159177354578 -0.11803555305225348071 -0.13913926437127330238 0.22931119673446789808 -0.16282289894421420051 -0.16694348945714762578 -0.16196768476000916737 -0.05062638544981331451 0.23449617722832899469 -0.0083068442356194656384 -0.17750249707477505634 -0.26274953690189517541 -0.15289747267295719646 0.082919158524395422671 -0.11054514880657220766 -0.16586442546071381021 -0.096374312459215585869 -0.14873524752547764849 0.0842083714513024717 -0.3436427778723872839 -0.31862123690014765298 -0.033744910951079280792 -0.01950539508659746013 0.049865303934333304881 0.081229822574584262251 -0.010332723587349683034 0.07317877456560495375 0.11283160178574816457 -0.030887145634260461391 -0.053253113203099944339 -0.17865781412246076187 -0.032937118158014699887 -0.033155957039441484591 0.069453943053641400973 0.039051342287157064792 -0.142262145641782356 -0.066079672211072165711 0.13513007031386273238 -0.0016561154043963272932 -0.11368319815951100082 0.098229752699277916861 -0.084011288341229978238 0.12167862048815471232 -0.19892132140316673428 -0.14525457975015651502 0.032554470863653435508 -0.12835413677583154546 0.21154678805149529364 0.070789607912370614007 -0.19141213975116741497 0.066145772861472551529 -0.11394605314977222787 -0.10310160724983205571 -0.21744229724268770987 -0.22471907805081783871 -0.13521701241520867054 0.1031742496592899655 -0.058289977331306003228 -0.1892864500032975239 0.072183680445750353361 -0.11238138277072429183 0.11966825517869764117 -0.14631000420674791784 0.11052482763845730696 0.1250760029692259967 0.048731174670159999041 0.063622816388535133325 -0.086134646073782294984 -0.060087789437179725538 0.071087195113484796805 -0.072511409219526437586 0.17153133940470127738 0.037164334164909204605 0.079880524345038880774 -0.067858265706320780586 -0.025686528666837078749 -0.1098265509597065176 -0.089905761591394336985 -0.033720561684746679088;0.15128270564715745605 -0.078943330875623898835 -0.19030227291940901568 -0.046079302823899860597 0.26898447015966170381 -0.13991043400695235555 -0.014006893215553135532 0.11466002425457448577 0.030124241971736440832 -0.025247966303309107156 0.0061989459061331233722 0.074961641066677117684 -0.11198219167110515238 0.0073541215364410677038 -0.030570052052286623284 0.11945051898670397406 -0.030877951739412230064 0.19568543250387213095 0.049882372019985257716 0.18219805091683310971 -0.17625875800064216836 0.13160838963006804558 0.058055530533139845795 0.071604627958400307586 -0.14724801289996897191 -0.027296507300013338193 0.20299850539873232069 -0.15986641401303489096 0.2389914659987520118 0.058545298095444224529 -0.14197016503623291483 -0.16073354327295086286 -0.18539867375761834301 0.020654955061992889137 -0.14241051530825063476 -0.15253850770041157969 -0.17072840571442865487 0.0083217910543213983315 -0.11983045405622370916 -0.1217109155159595002 0.18218704915369998698 -0.20442572291624511172 -0.11939451416170469844 -0.054999626876292763422 -0.17577957530733648306 0.069690800772469113644 0.17492759371459604134 0.15201371645502873009 0.093973946907555810926 -0.21296812259149383584 -0.17515767084063302295 0.078317688646512312323 0.18642422976945544066 -0.095561608425861602201 -0.1154106845714630708 0.07567234629590721684 0.06873907028522642515 0.1621712636831232901 0.097626076222878471755 -0.02324884554474418788 0.0009007826910423289736 0.040346330455103197876 0.15889411234428219011 -0.029398470055105149074 0.083209358561380078467 0.14717841344356236144 -0.061505601250601893426 -0.022761959773033201698 -0.08889605935719278873 -0.062456917908705077147 -0.026782822255619415791 0.027078874107702988194 -0.034926323980458751084 0.11337277556606213669 -0.012124685347391805923 0.042144496452076636583 -0.13159439314586190983 0.028131525697054651086 0.062520331879139107167 -0.079765144033074650287 -0.11190822806238780174 0.11194745497327299177 0.21549038025023667386 0.072753057945061899714 0.13771326009173695537 -0.071287303544975852421 -0.0028835849166764485237 -0.20839750779014817872 -0.045514954480687735972 -0.021328116004878661105 0.16632413150380234712 0.046534472747438417051 -0.2031891360296468052 -0.010373345472693149341 0.069879216219458487047 -0.07712552401489027043 0.19542984658623682725 0.12172416994050719308 0.1373081891940614585 0.12427117767386570979 0.029014249266969698721 -0.17981716996028576649 -0.093579339603952413351 0.039420741603751204007 -0.068802820051454591233 0.063476314728486984973 0.11730491265807323209 -0.19311078368441275677 0.050279670509403302792 0.12143694954922980289 0.067179858434081460294 0.16093002531477398898 0.13362917782404984401 0.20647228727493946443 0.16877126474594680849 0.01508130355586893151 0.13748389936345356555 -0.086344413471861655718 0.156101854632825221 -0.065440258198285305991 -0.026735603828692257322 0.15945109457925563112 0.14487701417051565556 0.13600398044712563861 -0.014430340161336527305 -0.12850212684482470449 -0.012165611502603097815 0.11736768688164170293 0.0047951976611595933941 0.13805197068450533737 -0.11612985874807420228 -0.011796384334657529155 0.21862618485066054319 -0.14074063386756371918 0.18987353144246774117 0.14423024966219169518 -0.0083995624926912031138 -0.15916889210361226392;-0.16597632030531728198 0.064464359906416288104 -0.0070218468504864850477 -0.45014131610511198822 -0.39252740982075645659 0.18305431902374422193 -0.0059142332511917519375 0.0095448983291592879447 -0.35051716936016152903 -0.22150791275598816221 0.018810099932384239524 -0.01341504983322646706 0.17891872893546917345 0.19931810742760655564 -0.19340879832031571128 -0.015945782326079908225 -0.19860522438524863542 0.03146193088896222928 -0.019723600022989024733 0.074426456919374314736 -0.051750745385328221493 -0.1315988069957279849 0.11565639035938464485 -0.020833305354787955838 -0.051126729191054542945 0.040749018780052409516 -0.095456701354841105855 -0.17191809388424919569 -0.049582328655340249246 0.14341803252694870774 -0.16647443704685296884 -0.19625069784867071876 0.14948413427328210989 0.11642753027063346138 0.048155712815659397485 0.17031811048095277239 -0.25931943498993997865 0.12532153945016144547 0.098599015859469923972 0.066605504332934370448 -0.13358940508889019516 0.0019891188341586638066 -0.13412698881311019283 -0.14252554345959300708 -0.15070575916627224067 0.12273504536511682661 0.026534705089346175 0.047753517486669894154 -0.071834546086705738932 0.20839295470041471758 0.16240812085382438923 0.16430538299249836109 -0.074540446848834276961 0.033805402438604345572 -0.17304673769250830673 -0.12705675068388860849 0.20016217273100475604 -0.10670671432197607886 -0.11279607227548109349 -0.24963126705235436087 0.18545611524945568305 -0.13000547391987132828 -0.15223014577889767973 -0.091509818931983746837 -0.081949196259330017722 -0.11147900047165772153 -0.24787309242786853547 -0.036639694224181174054 0.019622658061009903147 0.032973335711870561948 0.084667707685490631309 0.11903195744050323879 -0.18611403246585622728 -0.20468849205294420424 -0.17944477598274755081 0.13536077177645455816 -0.079184643405676213845 0.080258324240142772665 0.14861561975202294827 0.19379961510963003568 0.10687838076099051565 -0.052292320409592307762 0.012917699750417623375 -0.13485051734362962783 -0.048676217445515347626 -0.18033336832382315662 -0.11197338288158435737 0.11256738282395496731 0.12440621218764658096 -0.2476518234562552212 0.056262872301582611545 -0.071851688854593115385 0.067244323382447721005 0.1029381541882135459 -0.12159676446078263035 0.10590521537487529447 -0.082418718822461670137 0.061518309388679921768 -0.16867627435232762645 0.096263022909522932835 0.10235024527922947923 -0.032093658943313306542 0.088558725140637756246 0.16590587218081712106 -0.12423282315438839707 -0.15268891541005089052 -0.052000903963191992541 -0.12233896751478040565 0.074194647450635073382 0.039483878493113397368 -0.20902911759945827508 -0.055322653434259960736 0.012777835378906490793 0.13765005029294496985 -0.17355954984645161066 0.14210334205295610532 -0.20218307297485055285 0.087562555202685868339 -0.040015361696114727652 -0.14702160737061223394 -0.087680658016339993455 -0.0018350616152754259044 -0.16198419499994121118 -0.23654697498210394691 -0.05581358185330113908 0.15394621192899499151 -0.23000766312124484858 -0.1889008466149591503 0.13633433013044762849 0.083529928001282977013 0.029072736845769549946 0.056145287989710121468 0.047782097249763448576 -0.024834091428808376806 -0.051759288420660201635 0.16099566955298955095 0.11166201845350492983 -0.17232922357149690895;-0.21872503793752975931 -0.10490470636104588797 0.10993649055392322456 0.087730007091547337894 -0.15937472344779934907 0.17344513954574503067 -0.22323970692841851871 -0.0037364385915651630865 -0.20125676741154602256 0.0032930505199296757589 -0.10935394611865234538 0.1028408375008391662 -0.18607685364739010025 0.05918197905633397482 0.19629889461948960006 -0.012469976615797092809 -0.049023107046159648814 -0.12630099711686260111 0.13333841036427535043 0.19962293097345915061 -0.033447804355730970105 -0.083741521064707447053 -0.060840752611975197628 0.076320004259053067508 -0.010152702048085384193 0.074731525694429645768 0.051466191491360627208 -0.15550842623197685954 -0.02191967514707951481 0.030152331385311550993 0.054914239337257926554 -0.16241900329197375696 -0.082328868647479500065 0.21999555929985362135 0.071683472796296457408 -0.079745299822687742974 0.051329986786870229754 0.12030679678252563514 0.1921749172197834421 -0.18063999586353235438 -0.094182867055172439508 0.070275275162936745588 -0.18392116976130643002 0.10694478691909824197 -0.099236648024359552789 0.0039525413813330375831 0.16267529657993623493 0.1292482921804572471 0.13504232964013679341 0.14176736371979067886 -0.20074690583947912836 0.10010232895596853087 0.1538858051645055347 -0.020566753543986765473 -0.16094540617152106043 0.15350579248143311761 -0.063343265122889139129 0.0834711927531208292 0.025737838179476689449 -0.093405275720311500831 0.083310561508079528092 0.15050944279468181364 0.0044182569484633128429 0.11959202818949862812 0.17112136644774905703 -0.12426885748498357753 -0.0066631918548617045939 0.098289656723676899208 0.016816935398823239928 -0.026234823736927852939 0.0364532708293686461 -0.17022234700156171905 -0.032310199819106849572 -0.060161166999432386104 -0.21386218401604523143 0.15867258346506271649 -0.15147827365207286454 0.04612888947805440093 0.20679052141943818355 -0.041125372350517032383 0.17863124135862662456 0.19360799011154189442 -0.099671680594025119371 -0.084739498848962757638 0.052467489229200116319 0.021717020600957148702 -0.040185649323069651262 -0.15815772264615404752 0.094005574201754149577 0.15142083853567481211 0.16190886197946530167 0.11902998107848124232 0.17642658827788312847 0.10100000172761793016 -0.08776223718630062065 0.10755468037951236571 -0.23438090905909225725 -0.17043356117855718024 -0.0052718680779745294776 0.014839448398447561278 -0.17818531305529891617 -0.0065876141654975552131 -0.050608657163388727496 0.20514493450303591948 -0.17253088606593658394 0.016137039814299976997 -0.076802681235402417426 -0.14667230477306100744 0.058383800855583325995 0.034958558641165198011 0.11295773838970823988 0.024260296313214555625 -0.19879921170730169289 -0.17441711609828372542 -0.078464263442505649548 -0.14531821748411583028 0.17139383062359567211 -0.081204664052840672128 -0.17159108922850160872 0.13031466114909193155 -0.02102206778056319933 -0.17804250322684342378 -0.13025595736320341733 -0.22041383551098328586 0.17949838699842429746 0.093654903453467511221 0.033323798050392872128 0.021925702747558322575 0.078632153177244534792 -0.10611102319050565168 -0.039333919825963195582 -0.037354178449020905561 0.16278911583032024124 0.11585061920804369529 -0.12532339392461419592 0.13744889039113514229 -0.077316734470359568809 0.088633028444228212361;-0.17722231820531883506 0.17449622389974991932 0.1661620814751249009 -0.17089134131442310083 -0.16930108980385610851 -0.025910347347674944629 -0.20017163816265323706 -0.021288038892203209329 0.12092678368175235892 -0.12996122147913755085 -0.0079282776834760301798 0.069423528959234703795 -0.020905838588106240294 0.10765479630196571337 -0.14717955099369819938 0.076362725438718220827 -0.012704613520427661053 0.022482693259755825999 0.085456165909929160396 -0.11597894593356586346 -0.027609261785620561186 -0.18627951260833144898 0.057706071922830198817 0.0014503348692488527566 0.13919589419585273737 -0.036920295472200298503 -0.036977286153998804863 0.060060474213171337332 0.12044357514146558641 -0.20557572602931142858 -0.10429640421338234879 -0.14917168185404947045 -0.093317371337866772407 -0.098163953668823342169 0.013994401064899613524 -0.098183443602231565417 0.047052828850478775613 0.097940630993772065382 0.14316844874291803635 -0.10270575202882593902 0.10503816801176316109 0.075599493949751031541 0.16868756570688467344 0.15366352740328126369 0.067857024028912027447 0.094844114051130412602 -0.14824192163334987127 -0.01681269639836256713 0.079800787210525095383 0.09590985561210269017 0.077550779492763163847 -0.070488495292928748936 -0.0026154105679628220429 0.058730024590162743792 -0.0096658383151737442551 -0.17060381906930505158 0.13520240294079235999 -0.16569291884083806043 0.12037823036656004894 0.085829979351925461684 0.15238048916026181168 0.19445910073483041458 0.15415620927921158678 0.16090515944000224891 0.1394094224392702086 -0.080124264659504673691 -0.17629555346406722283 0.14423695105730560684 -0.13237349595329300778 -0.18298484438723225387 0.018569281241546758271 0.07111326514524385356 -0.078629037376726315656 -0.21304329586401851704 0.18305590042124653127 0.035998962704482884156 0.20015039283799443415 -0.15712970648057777989 -0.1702476868356035955 -0.086683651692981117387 0.14573714645699983872 -0.1713227412839511965 -0.093091096583749824434 -0.15120306153698193086 0.20136834226875338638 0.17096867016952757568 0.089910913603610587153 -0.0082642979321824981687 -0.013330849584293825646 0.059158548998920659767 -0.012224701974801173085 0.21074668802154061797 -0.095860337774700987712 0.14231748946110769904 -0.043508564006617379827 0.022491394810025339829 0.0097035059037282964806 0.14210026801563360732 0.20920040830929986786 0.11971243401965890596 0.12937137603875659142 -0.17021570218129952745 0.19344786865286897615 0.069435806227669399915 -0.080145533704207891357 0.048198826512883187478 -0.18849309888324183859 0.17442506601013724188 -0.068891932935082167422 -0.08084929212888343486 0.084620022502408340226 0.035947471065301779547 -0.1812169947869511355 -0.0057494029972064777945 0.034990397470967521398 -0.16598354958170219442 -0.15029502478986644931 -0.17602128253456705842 0.096419603512312115901 -0.10887546854882980407 -0.1040459623640773712 0.1488387917117482695 0.091566284279665996482 -0.17995518746451763525 -0.18286294885758447304 0.15364102428955081492 0.18482870468504875028 0.13803233300937553518 0.025632086158652461066 0.048624939769134019329 -0.046032659993605069826 -0.056865194802130057672 0.045279755021820258798 0.12815280050629859754 0.13310274174169964279 0.090560391048521038382 -0.16638606743909301056 -0.072700927002200932403;0.054088227729090922191 0.0056964475935962826866 -0.12639614952660965796 0.31482931484585813253 -0.019538806194007333344 0.082617261164287802977 -0.053338293435806552467 -0.040020700374856311987 0.0053464299626242769298 -0.12352332091982319573 -0.007829743807306737205 0.18572954487173407023 -0.14264948218602913066 -0.042488295405016501816 -0.20053021019423633575 0.045966398563094375274 -0.13005545853884123431 -0.18413980352779849015 0.13145356585741826971 0.085501910917310672278 0.12941723933272442082 0.034482171040866010925 -0.0729751515838122089 0.17826983957507994139 0.0016534501863222092824 -0.20497473401100888002 0.084712785797108267061 0.014473008639038211984 -0.10768795418042184653 -0.14876164162574095906 -0.024399940613312735838 0.031182283096994511257 -0.043997930429876097591 -0.043080403773665780498 -0.16681766647815032822 -0.15641384737464372745 0.026738293151498396943 -0.18834636535909893285 -0.21539798048565980682 -0.094066077269633105451 0.011866534816952149789 0.0041447927798463944996 0.043664983120455420906 -0.067465653122235416661 0.20489784937520089114 -0.16048085387636198962 0.1394026610642241093 0.10907799692185254914 0.033864819187920128241 0.10545110648936141529 0.076846015486415369944 0.064269364417345417606 -0.038950735676781478301 -0.11906608140115620964 0.16113793940101264757 0.12500225797628500279 0.10184677234647056265 0.11689902945636951315 -0.21987386266144320901 0.12119169374552467289 -0.040533710428488939348 -0.10076707826732210493 0.17578570858412939648 0.14422801701332108038 -0.052099723081492813059 -0.078365232618505989426 -0.16143222561051479014 0.17354369029049021567 -0.01328183124813679325 -0.12896709756672222746 0.1391608788873041902 -0.037157235857663027667 -0.062999058334116869728 -0.14592076818728649812 -0.038433848995559113937 -0.096908071129072015371 0.14643540479742211957 -0.0044031517981373896262 -0.025039416370248084032 -0.20094049824313856001 -0.035444343563227419247 -0.11412758886326318519 0.15112613314569262046 0.04450810980464171146 -0.21952323271336546262 -0.13241114939258258332 0.043966615847855779198 -0.15327970432047968719 0.081798700721596076524 -0.23706695507642161491 -0.099396262603966695215 0.16493439992746497524 -0.19447770576740913695 -0.15480097584204163819 -0.0093509702169898116508 -0.15715573842130617366 -0.16351864058872056518 -0.22552246229433617342 -0.044612880617094431701 -0.10262335175075426585 0.10992820650829004947 0.15537246665614401486 0.20810243173312648057 -0.21973591910546103056 -0.17090047055371149209 0.021065538924804092652 0.1202289721451680754 -0.2139358275832886902 0.16485574913146683329 0.072303829456524498775 0.1935154110667785532 0.03066862269078711456 -0.20005261649076105934 0.054992111279472205565 -0.11421250944074946843 -0.12038735989294734041 0.10634737049543303844 -0.0034393273100116975721 -0.058355658672869445414 -0.11351154818587216866 0.14657736972106230611 -0.11243461840972690524 0.10849530084701439203 -0.12748304365512400094 -0.10887845783033779645 0.16161436583758928554 -0.16021676771693321717 -0.19298631689449052828 -0.098740147072084200053 -0.035639021038651366724 -0.096427712184093725134 -0.14658564211523766874 -0.03827159556377248556 0.1445896698391515578 -0.15258508268152459753 0.068207798656142501481 0.028040804706738604174 0.083446811498429723786;0.46813758763193125123 0.016671255148926474726 0.054890555220999386055 0.55818170275466105767 0.6118723117509692333 -0.18888852465255850932 0.33233566345909465456 0.046276336917712428132 0.40126232753852575375 0.2473142476759298547 0.10870068156851572794 0.21807856764843097652 0.21685959288006895207 -0.011871309657735650694 -0.025595956292473649035 -0.0043617466646069516165 0.18921832823927534073 0.1251947698332583625 0.011547404860629434734 -0.096094230256737106499 -0.013347086021629435415 0.10822560672956030303 0.19339498707369787156 -0.038141055597184073123 0.083676076539527077802 0.0038558106455229318628 0.15936835659584294711 -0.1022622972544344061 0.10341098377293193866 0.24640472332026444602 0.10528691996350783566 0.12018856050179928252 0.070553832342836741987 -0.024111139547123235788 0.12293431077055981537 -0.03687629104631411775 0.21684524094016294216 -0.08993451939728466793 -0.011724891072642060208 0.083402106320336635847 0.1602869443788099979 -0.19981630749977929984 0.0789930651708514453 0.14725351431294822491 0.29195866250935881281 0.31173784324699427284 0.24906892070346720036 0.33399564988581686986 -0.096128084235186345152 -0.078127953351499704326 0.068579707153192961955 -0.03546376089880838578 -0.073083899274460489837 -0.069920313886188856234 0.25294822996759908085 0.1698816488225129151 0.22776277235166911272 -0.12913933658693338424 -0.094115341040172162401 0.12791939389049716835 0.019982185661609624255 0.19834468808702640508 0.24838690993826778586 0.049744408253225375072 0.027540554602030961617 0.094466500212550791327 0.16390631863667667889 -0.027508486455957308764 0.063592822647926178226 0.16163430321365349074 -0.094815559387349881981 -0.12968361482903170701 0.21111511680210742758 -0.13988326509519094509 0.3080800575382446338 0.22801656007873655208 0.12868359424500014354 -0.054342646574836721285 0.03046780547747124715 -0.038754602490486553257 -0.045407068612988064904 0.073880374677726748378 0.30328052275188377429 0.086763912232914935929 0.013146005855284229394 -0.043654912397487123654 0.10621464632638105696 -0.02786028940994928621 0.21594710852812523671 -0.11097179423828483491 0.0088804992146529274089 -0.13150260289696641403 0.066365764024495399465 -0.048081522020148453889 -0.057459093941694634744 0.12779926140327063644 -0.063032883345467416447 0.0394119590933869543 -0.12057127575901943617 -0.052125564964260899525 -0.057373199494823223787 0.18983743403964092877 0.022419293198332693878 -0.17577018565279525775 0.10582132833469641564 0.03952261104244226414 0.075658720356484215896 0.12567403557825004845 0.065221279435984991224 0.13762312821801456209 0.023966832121990248178 -0.11336998674695555889 0.20115008105683140904 -0.029228838016482790868 0.11467548643715437529 0.039177226569564752023 0.18650698311429381171 -0.019318082602852157392 0.13862615926120333554 0.087500618987454523157 0.068856893788712000837 0.14828786682766897931 0.17170230312003906259 -0.13881684466493032781 0.036527511202034505799 -0.15289537374962691718 -0.13526224096136801878 0.36412661239390392565 0.009106221331981100009 0.012201162517698821083 -0.049435702105501279358 0.00038600002755742758966 0.11565902714618564451 -0.066351678267806787903 0.10149958421231984607 0.26115851765043640587 0.28555308912839705293 0.12285317636025647192;-0.12411370916712995138 -0.13604204099792294169 -0.02051099918303004449 0.12716816998597582633 -0.029830274123222845495 0.15141670571611481888 0.068914683657496186853 0.0012187347017073753286 -0.22041866900985696009 -0.11034799546562765182 0.0086953695223026677974 -0.048982283721721329994 0.11590197569324207916 0.18313550338671252815 -0.087154113828630433436 -0.13626590482502823343 -0.094933973512232858183 -0.061880591227725607884 -0.023416411044051156642 0.10421721595064820098 0.12545834289782992199 0.039963742829017517844 0.19882679844818254566 -0.13374233779461866534 0.10028300718348878706 -0.0060963532731667883363 -0.099498164245101050618 0.021277531844967837588 0.19287310758463632743 0.01015263515801058912 0.047199599892754851016 -0.16548694776403638507 0.073416301016667989687 0.13944362377734575986 -0.045208110883742977371 -0.1858695491943040401 0.098402401873234152108 -0.17288841786499320463 -0.014560627238878081843 -0.17408433398339681619 -0.04490438433386697431 0.082712416884859252253 -0.040791849730740813162 -0.065346907518856398034 -0.017926838003320535314 0.032890891923829428112 0.069004924013510049452 -0.016644289718672291428 0.22111379118122745369 0.091682265682745761604 0.21276745694169488243 -0.066372192524072212705 -0.16203949661515501535 0.15752798302917489504 -0.15847900670760620145 0.16878423623134555798 -0.18145406121153681567 0.077213671354366783528 0.24746268993980352624 0.10385208963918254876 0.044844141794272859847 0.17940887325097898408 -0.1167803392170439214 0.078657134307002649076 0.12043581144732466714 0.070104373312442097577 0.19300530508341051661 -0.090626651927287832367 -0.013954436363213839831 -0.21080884280552272814 0.19895794621247386846 0.23922168235290122706 -0.008495314129120865379 -0.09548086469350607064 0.14204447005973891427 0.0040254450876740458659 0.1249043982327476543 -0.17104135066771664064 0.094005618170011476242 -0.010526300613568125714 0.15103656497474363118 -0.15903024045722288782 0.078306313632604290786 -0.11727975390969920533 -0.012971910538326362344 0.12590283247380709697 0.21910396574006935078 0.11514995273576843215 0.0068782137904112488139 -0.10225241786348193695 0.030402552523228015824 -0.087278991108454828662 0.21203431418651905171 0.07046733123540302457 0.04180533432822953338 -0.081741750318515327134 -0.037586929702251845042 0.12600933894394095169 -0.11435055468443017235 -0.051599978418090636234 -0.0021680814159410000466 -0.010280253089574083875 0.15380954518719330837 0.092160918431946833862 -0.15496400073263974506 -0.19059812728997832521 -0.12086188678014753162 0.094159138666678271479 0.22549638794091170224 -0.0081842594931137747916 0.074919085363828061275 0.045803883491891420054 -0.14579645424241788332 0.12911211489367729888 0.15049967392078955619 -0.00086286003045922424291 0.21423117016713588701 0.13146040311591924987 -0.048860127765501276675 0.12658547822950158568 -0.072178702068414896109 0.033887451067163870677 0.010017384855339150906 0.0088956013064777801624 0.060617689598765289727 -0.024090232520596131793 0.19301183685300213333 -0.1804822612729976572 0.2077177978354801946 0.14329104606124126731 0.059867624743581614177 -0.16918182987157850961 0.20675131980103747531 0.042182371302298030113 0.11182065616316713696 -0.16396552506679748507 -0.038052312358112322377 0.034875856107911024084;-0.044862050535802139306 0.084244095115590805767 -0.25570951888921594763 -0.20668597383725972882 0.020892615153194574878 -0.13030856598515214162 0.088201462089465651473 0.18005409590658150165 -0.13855662687327069404 -0.09030064031673845637 -0.011274753344310026876 0.10029972833096427454 0.056260425179582684851 -0.13005780700597754929 0.036920647747122233018 0.25732312024283648944 -0.026226894726286285181 -0.13390406978506361191 -0.12836854698914604289 0.12023937948730446801 -0.015114404083817962673 -0.020880652910398204286 -0.058205663236555675588 -0.13163738923134193914 0.13086491299632227459 -0.065895296783635259885 0.16778284897419426525 -0.1390030402147547639 0.019189360344957787086 0.15325812428956911426 0.051036111324755870089 0.22108374403319749901 -0.1541315649993095227 0.18599110803462043373 -0.15469230748613482795 0.0091484764048967159855 0.077409688750180505323 0.12844101873376903566 0.10313180548289326011 -0.019213769333410835732 -0.047256932590610645217 -0.13142725653065451263 -0.12445941818168257398 0.036452178514351570027 -0.16184147401399801014 0.091715952209733442313 -0.0011011065628587744791 -0.15173042807738693072 -0.080271038582326162403 0.086981516890255058949 0.19993991304044314572 0.10312860586329485046 -0.10744294707745860595 0.12689439525220072569 -0.051982856631459635477 -0.064396193801953799385 -0.047475911614572104125 -0.035375165386811596724 0.068902128348020744153 0.17366287884214640092 -0.1083566514854054641 0.018644408560905600947 0.062147411948601252729 -0.13246300709247046945 0.15835203776689826816 -0.024097620130173209169 0.20992408637290280171 0.17298241713089573812 0.15424474579091115856 0.16873141708168540309 -0.17093055330799325486 0.055684051481267676786 -0.046195657408581100589 -0.13745149436857487246 -0.20221213263844550756 0.20211493804313107603 -0.13425881384074936364 -0.16872045314646280656 0.093230288580436609935 -0.14437628241814334795 -0.11663005770431623953 0.11896874374870497482 -0.099053139548567009642 -0.13749142847537437762 -0.073500418702308431551 -0.20959156350556654158 0.17865701637341929731 -0.14198858952064125072 -0.083680867028346039849 -0.027933408384018840881 0.11758527590606958346 -0.17972997786979189039 0.048913468750895347514 0.19971324697132400439 -0.15684756070422484209 -0.018190775265164847718 -0.18220362036536452699 0.11535567322329859374 -0.018231877260253898793 0.058187449016104987598 0.046178119848486624821 0.13756666440724779621 -0.010219480109744487339 0.06493241507109447086 -0.085780983008346564644 0.0083382927008297386129 -0.0059659256748678972035 0.092307153054951629478 -0.16854695374141251407 -0.0031594223930859087132 0.17998390315647735949 -0.17421442190863886679 -0.087276864576628435111 0.017900016311451254908 0.043858128091546468019 -0.076793341438415416156 -0.096840470873238479466 0.0047881963087868248743 0.15603995117588762009 -0.1436384292271534191 -0.0073938914441418288753 -0.1543516978592072153 -0.0077443514457290708528 -0.05152799793716247162 0.18259777238419327983 0.23262343868916623979 -0.0994996508681028069 0.15025900633254044014 -0.023240705254970458332 0.081643307649420418515 -0.11049332061348171585 0.01954615404508008511 -0.20173056474257614057 0.1585521777223953821 -0.094008318335451604431 -0.01934918748661930768 -0.17930017023644401197 0.10531471604292445832;0.25892360438181738491 0.22324582918786561869 -0.002257681264047921646 0.81999138150010653092 0.47117839100655856122 0.033812550255092957419 0.35005116999581997739 0.18480405320962803306 0.71636011088826134774 0.35703249626919336679 0.015445181025178581977 -0.12761479993736088434 -0.12493431228437507086 -0.25840888084450402973 -0.19951847937358890839 -0.066323447157199857949 0.1236375255243961635 -0.064122870155209107934 -0.16354115340314254179 -0.2953236106582683429 -0.15091001004108975381 0.014674924564035577573 -0.097889722736409057191 -0.24686167423082153172 0.067749156943849267454 -0.16055949085857196268 0.10384951525322447252 -0.21529428135728098659 0.19403408448821649057 -0.13757297814534572011 -0.15654201889249577673 0.037080754350927669361 0.16174091509516486109 -0.29374404892227717889 -0.15337490901031552992 0.13891540405525132362 0.01185558356452925087 0.18024913499496389435 -0.054067157361083244271 -0.15957775537610252581 -0.17652083731628245844 -0.2734651998690098007 -0.047690584664863019948 0.089341901376049928651 0.21958227874858010642 -0.21163625755750647972 -0.08018538077206049941 0.32694252544836915897 0.15407321362532788722 -0.19428602225150701233 -0.060628369305272135359 0.0099396574613344994276 0.098982465993964499629 0.23441414227308632334 -0.029578967926096953744 0.23092834867467484927 0.0072497655452981530147 0.065535480009091026665 -0.11408263164694291969 -0.11046139434819510217 0.07420667379039219691 0.26279042829465903974 -0.061838538966666696528 0.057798075510034969959 -0.022338068753222264928 -0.054655784688256388304 0.051619384889889034784 0.14800734895671657787 0.010023668507330539892 -0.15232145583323547511 0.0018482448284350824416 -0.19274960945172656124 -0.10954175558831442949 -0.1108988840062967024 0.079262676822294458878 -0.25459011746692766787 -0.090859499571327162482 -0.12858880760615393202 -0.083252751191941684605 -0.2316297765004619591 0.10323392683204983544 -0.047886615957265996069 -0.13744944012846518899 -0.078270600439576579199 -0.14354258555532492525 0.17077870741304135294 -0.030571265101698347905 -0.21939188893069780373 -0.027903443971282065189 -0.16481408031358832367 0.010545952631720525647 -0.046347909651649525642 0.13674944889144161064 0.035170591513276186491 -0.10250353333430362035 -0.12729644455606292652 0.053832433901108464602 -0.052136190102368813737 -0.045464687321948415999 0.082540096760756895278 0.064517889325240204701 -0.16091804304343354515 0.0032440174422503267188 0.075057705522063186687 -0.21826419933747429059 -0.066457757322941318767 -0.12031178661002817076 0.090898893436697325576 -0.074379898446512437982 -0.062945283235248880582 0.074989204780618684554 0.083349539241609177376 -0.15413588323827950854 -0.03170069743387771144 0.038232872707419068847 0.036818110194728324858 -0.058576545924992985681 0.12549442650635403429 -0.1372946709305977453 0.18376813305897993223 0.043266550603076485426 -0.15356349897739257626 0.054852272642327344621 -0.041004754311765388708 0.020699593481405802881 -0.029986669254083206382 -0.18234985308443796281 0.24989375170216329702 0.10460030087937473298 0.070079067571105074785 0.11293265781794885327 -0.15893127319620517501 -0.067434228444884627973 -0.15026786781609621779 0.073719783576762912269 -0.29347425606326787983 -0.11507761985489065037 -0.0023125042112531507717;0.017529766705598939097 -0.057002844976126156029 -0.1126106406006949362 -0.24686027293704795871 0.089064531082269235429 0.051092177250644882358 0.0047048205136482924849 0.083909405859592375854 -0.15538118953357321628 -0.23952553423567057855 -0.15482984990414802584 -0.1944312306273935087 -0.12508800442557613253 -0.091751109497496541323 0.21506140907673804152 -0.1941069032923852522 -0.11214783785967111229 -0.031545331335935927752 0.14796130312041058663 -0.081423040895366061154 -0.15514663306427314837 0.078245793165658009127 0.071367600258976732208 -0.026057082851223472425 -0.048252524111868283496 0.157712166930653791 0.0059448083436804636387 0.1476539918694998732 0.062541964453988449502 0.034057263208687432732 -0.11432252303947729177 0.11777594298355367752 0.072279372818537038214 -0.077625400438900205025 0.15578466974245969157 0.041541366958922763819 0.025115798587706402584 0.088214475798690308861 0.13891161424328640761 -0.15117585446753245559 0.10601946941627020393 -0.13590075042434310304 0.21170119329460193591 0.049510885774504721779 0.054344100547345557117 0.14299100761516395086 0.11648943083461453518 0.047911774010062954665 -0.10563394003163870116 -0.051875801108351306257 -0.12712053800891343069 -0.040687039446827034939 0.10173756183901214167 -0.17796042996674671377 -0.015877755402593632383 0.10864232084262863409 -0.097140406734893991469 -0.0082952503894585492838 -0.041883255216622866657 -0.10222966100751054719 -0.012499997252096762407 0.1504339771939163517 -0.047475927506443131587 -0.0019997571008262215141 0.016849245402667509253 -0.017736674553887207817 0.19953691963866695969 -0.024015411040959534772 -0.063488963637116174743 0.059760816549303409639 -0.1558582762295157853 0.19599620103594880827 -0.1699741178512499673 -0.13763037353901702575 0.074914763098668610275 0.024485349621904725637 -0.13084724333224759252 0.041748525514681972259 0.096826827596100936701 -0.1525827588680043756 0.04826369522309591209 0.0062906509968110547668 0.11380692220593675856 0.17578315423508700244 0.11528005612522890244 0.072633671097426327767 0.17980740032744951806 -0.11771360122390023273 0.15221460203748249373 -0.22010636168498567966 -0.046369634853744109981 -0.14244702409012929833 -0.11914516694556086251 0.15406431160972081096 -0.20287150874492607122 0.0087220588145543991726 0.089598770854412576603 0.084224761087214231048 -0.1157242482197574085 -0.077295838958254897699 0.10792329487589724657 0.030662787390127382164 0.18525066576779247729 0.12234609203392278476 0.16421620378262904993 -0.16976472941236869785 0.10482322429383655882 -0.1685848490522340315 0.11902171665346589213 -0.08363095530734626637 -0.11687626763396012641 -0.060718713869281092099 -0.16183558434281536398 -0.098153952678357012096 0.14169664359895436934 -0.16895416033696647462 -0.021010034503853632776 0.11787754904404827705 -0.15310719216659746111 -0.18731883461547355063 -0.028748337104906832029 0.1000507371698375475 0.16774260736232746161 0.1864584782101006144 -0.014616149810901394798 0.1724806775841544737 0.12554256429520760374 -0.19953510458556372731 -0.16057299140010472538 0.010714289866832593656 0.18909216054340396984 0.21805922506306216202 -0.0087108185334743726963 0.13983919043577494601 -0.034176693211368722181 0.16345460118557109119 -0.16468980961867735191 0.0057514752326738843163;0.3488293411484255091 0.13449072160979622104 0.15460275000009196522 0.63400413197804394994 0.3343560695030154406 -0.076455621250539146372 -0.025104742813027533521 -0.20812661328060746979 0.63575692724455667992 0.32477267448412866502 0.0050210394697595590874 0.025722176739278530128 -0.04252485562640782174 -0.20066510151061639489 0.04467282671751612172 0.0083656282684488846024 -0.12090648549180890714 -0.20733838059465528603 -0.23179343256252391003 -0.24703232008893713512 0.12338161314466217222 0.0099885192269140235521 -0.14235580130714114988 -0.14127121643730805589 -0.19943963294996666646 -0.12807481690359900917 0.056909403297288788104 -0.037306264446467923834 0.054566684602479938182 0.043687573620084622916 -0.14354277589822028727 -0.31474102846688478685 0.11951413266611952968 -0.20483386758153021567 -0.30442548740099273363 -0.23717196283671743151 0.094714659327500602681 -0.15285314555409743043 -0.15464831900711076274 0.058390523908482559745 -0.10680349275136806486 -0.29554813989103689842 -0.27408236231817656448 -0.15324877916156204316 0.19843656096810552425 0.14891856710259926411 -0.13305859652668652893 -0.068763532956428397025 -0.13007098343238832072 -0.29082764866444382745 -0.24370188970079167956 0.0078943586361557346182 0.1339133842309072342 -0.11667738814272313186 0.073192279452780201199 -0.090485525296029198361 -0.22038087266079997573 -0.09881164111210948009 -0.23768488419090016972 -0.22077951745155627306 0.072080414579389254226 0.064667425089227154045 0.20466193745574631779 -0.23643362311955112842 -0.15365964716914720656 0.0063421009770220412166 -0.027366538526035009971 0.060470333375194598724 -0.078922850890578571947 -0.012469873723116075073 0.041534434699106920208 -0.049920712447890633334 -0.16625818187744562104 -0.23308793280436299056 0.023296522220571280054 0.024245026018416347691 -0.29743721488280117082 -0.062913083044862316839 -0.1348178142219273179 -0.091210388092567748486 -0.038744071981453000186 0.11183987589801662466 0.035577065724957036841 -0.075173513874886160879 0.149578275293510643 -0.023197294580163119182 -0.23859676731076615019 -0.26080807426074631428 0.01230797538564983723 0.1026922214944144679 0.080577311101245413516 -0.15800498383798924906 0.035700270087315952305 -0.055372729379645532766 -0.13742840308852968811 0.16735259738219604442 -0.06931899472308411525 0.16681643098428208805 0.18644474337884592297 -0.13283212105819378057 0.054302449940799094041 -0.17421650602379315509 -0.073941764318739833239 -0.013398015146737815573 -0.13649242626860591532 -0.07521302002716609425 -0.10782464105960240519 0.071753750877135841213 0.16066183216689719493 -0.005576855678497486847 0.1514148372386603103 0.13959265730193626265 0.090644023945554721977 0.071977561844653412115 -0.20650337022324388725 -0.12074674260368588319 -0.22936485382951768419 -0.22715857771499509132 0.059227229919862955931 -0.039600131785538353335 -0.23786927375888919367 0.095812541371890894148 0.023653014474413553564 -0.20609392227545428322 0.058156978371658556159 -0.11064994041326574326 -0.24146220315571165216 0.02065927969363089492 0.13117203713010297528 -0.03414987605125633513 0.098440005516452239176 -0.086789511242681610659 -0.0010992668496118834526 0.13045096962488539338 0.18411276720122601858 -0.067304431337239664646 0.071750131162510208394 -0.080272714656552487944];

% Layer 2
b2 = -0.10711092441767319783;
LW2_1 = [1.1065966678756038455 -0.15827533703358526163 -1.5137630505916872536 -0.3338110955380217959 0.8339203938695489704 0.93707199337884194978 1.5727483014700931463 -1.2644192288434563665 0.91961787203598688301 0.24758490459555404506 -0.76118960981277394851 -0.16439251960500636529 -0.12208741814735436793 0.23401031122396243056 1.05523813182431625 -0.25468470812765769962 -1.0833486739348625605 1.1395797051097258379 -0.36253496940777890645 1.0759228569218679539];

% ===== SIMULATION ========

% Dimensions
Q = size(x1,1); % samples

% Input 1
x1 = x1';
xp1 = mapminmax_apply(x1,x1_step1);

% Layer 1
a1 = tansig_apply(repmat(b1,1,Q) + IW1_1*xp1);

% Layer 2
a2 = logsig_apply(repmat(b2,1,Q) + LW2_1*a1);

% Output 1
y1 = a2;
y1 = y1';
end

% ===== MODULE FUNCTIONS ========

% Map Minimum and Maximum Input Processing Function
function y = mapminmax_apply(x,settings)
y = bsxfun(@minus,x,settings.xoffset);
y = bsxfun(@times,y,settings.gain);
y = bsxfun(@plus,y,settings.ymin);
end

% Sigmoid Positive Transfer Function
function a = logsig_apply(n,~)
a = 1 ./ (1 + exp(-n));
end

% Sigmoid Symmetric Transfer Function
function a = tansig_apply(n,~)
a = 2 ./ (1 + exp(-2*n)) - 1;
end
